{
  "vocabulary": [
    "write",
    "given",
    "sentence",
    "design",
    "line",
    "whether",
    "between",
    "company",
    "convert",
    "how",
    "short",
    "classify",
    "message",
    "product",
    "about",
    "one",
    "email",
    "should",
    "extract",
    "list",
    "propose",
    "strategy",
    "two",
    "number",
    "rewrite",
    "where",
    "order",
    "over",
    "across",
    "single",
    "startup",
    "conflicting",
    "format",
    "different",
    "reason",
    "through",
    "review",
    "open",
    "research",
    "support",
    "ticket",
    "using",
    "competing",
    "public",
    "text",
    "long",
    "ambiguous",
    "new",
    "why",
    "time",
    "nuanced",
    "novel",
    "entry",
    "framework",
    "multi",
    "under",
    "help",
    "determine",
    "shipping",
    "address",
    "what",
    "system",
    "construct",
    "stakeholder",
    "platform",
    "data",
    "reflect",
    "personal",
    "title",
    "fix",
    "confirmation",
    "first",
    "paragraph",
    "major",
    "term",
    "partial",
    "evaluate",
    "risks",
    "software",
    "model",
    "customer",
    "feature",
    "balancing",
    "plain",
    "distributed",
    "decision",
    "sentiment",
    "engineering",
    "team",
    "string",
    "code",
    "out",
    "error",
    "founder",
    "findings",
    "tradeoffs",
    "not",
    "every",
    "response",
    "analyze",
    "effects",
    "historical",
    "original",
    "draft",
    "identity",
    "case",
    "explain",
    "detailed",
    "source",
    "phone",
    "plausible",
    "impact",
    "tension",
    "evidence",
    "bullet",
    "considering",
    "reformat",
    "block",
    "market",
    "check",
    "test",
    "online",
    "office",
    "study",
    "exploring",
    "changelog",
    "hardware",
    "date",
    "comma",
    "separated",
    "deciding",
    "when",
    "request",
    "real",
    "sided",
    "marketplace",
    "incentives",
    "competitive",
    "metrics",
    "diagnose",
    "retention",
    "without",
    "three",
    "difficult",
    "report",
    "small",
    "lab",
    "prioritize",
    "form",
    "price",
    "identify",
    "past",
    "password",
    "category",
    "pull",
    "user",
    "synthesize",
    "detect",
    "slack",
    "comment",
    "costs",
    "metaphor",
    "opinions",
    "decide",
    "choice",
    "argument",
    "could",
    "energy",
    "row",
    "negotiation",
    "most",
    "unexplained",
    "cloud",
    "months",
    "weighing",
    "proposed",
    "companies",
    "contains",
    "person",
    "names",
    "meeting",
    "ten",
    "genuinely",
    "all",
    "mentioned",
    "implications",
    "questions",
    "driven",
    "incomplete",
    "auto",
    "essay",
    "project",
    "cities",
    "generate",
    "technical",
    "migration",
    "plan",
    "legacy",
    "microservices",
    "risk",
    "explore",
    "third",
    "layered",
    "multiple",
    "debate",
    "counterarguments",
    "second",
    "recommendation",
    "weigh",
    "add",
    "full",
    "stable",
    "risky",
    "but",
    "specific",
    "financial",
    "comprehensive",
    "only",
    "hypothesize",
    "log",
    "question",
    "summarize",
    "algorithmic",
    "year",
    "contradictory",
    "roadmap",
    "priorities",
    "post",
    "billing",
    "climate",
    "story",
    "explanations",
    "complete",
    "word",
    "answer",
    "societal",
    "many",
    "them",
    "privacy",
    "during",
    "policy"
  ],
  "idf": [
    3.191032607088298,
    3.4423470353692043,
    3.5164550075229264,
    3.5164550075229264,
    3.5964977151964628,
    3.5964977151964628,
    3.5964977151964628,
    3.6835090921860925,
    3.6835090921860925,
    3.6835090921860925,
    3.7788192719904172,
    3.7788192719904172,
    3.7788192719904172,
    3.8841797876482436,
    4.001962823304627,
    4.001962823304627,
    4.001962823304627,
    4.001962823304627,
    4.001962823304627,
    4.13549421592915,
    4.13549421592915,
    4.13549421592915,
    4.13549421592915,
    4.13549421592915,
    4.13549421592915,
    4.13549421592915,
    4.13549421592915,
    4.289644895756408,
    4.289644895756408,
    4.289644895756408,
    4.289644895756408,
    4.289644895756408,
    4.289644895756408,
    4.289644895756408,
    4.289644895756408,
    4.289644895756408,
    4.289644895756408,
    4.289644895756408,
    4.289644895756408,
    4.289644895756408,
    4.289644895756408,
    4.289644895756408,
    4.289644895756408,
    4.289644895756408,
    4.289644895756408,
    4.289644895756408,
    4.289644895756408,
    4.471966452550363,
    4.471966452550363,
    4.471966452550363,
    4.471966452550363,
    4.471966452550363,
    4.471966452550363,
    4.471966452550363,
    4.471966452550363,
    4.471966452550363,
    4.471966452550363,
    4.471966452550363,
    4.471966452550363,
    4.471966452550363,
    4.471966452550363,
    4.471966452550363,
    4.471966452550363,
    4.471966452550363,
    4.471966452550363,
    4.471966452550363,
    4.471966452550363,
    4.471966452550363,
    4.471966452550363,
    4.471966452550363,
    4.471966452550363,
    4.471966452550363,
    4.471966452550363,
    4.471966452550363,
    4.471966452550363,
    4.471966452550363,
    4.695110003864572,
    4.695110003864572,
    4.695110003864572,
    4.695110003864572,
    4.695110003864572,
    4.695110003864572,
    4.695110003864572,
    4.695110003864572,
    4.695110003864572,
    4.695110003864572,
    4.695110003864572,
    4.695110003864572,
    4.695110003864572,
    4.695110003864572,
    4.695110003864572,
    4.695110003864572,
    4.695110003864572,
    4.695110003864572,
    4.695110003864572,
    4.695110003864572,
    4.695110003864572,
    4.695110003864572,
    4.695110003864572,
    4.695110003864572,
    4.695110003864572,
    4.695110003864572,
    4.695110003864572,
    4.695110003864572,
    4.695110003864572,
    4.695110003864572,
    4.695110003864572,
    4.695110003864572,
    4.695110003864572,
    4.695110003864572,
    4.695110003864572,
    4.695110003864572,
    4.695110003864572,
    4.695110003864572,
    4.695110003864572,
    4.695110003864572,
    4.695110003864572,
    4.695110003864572,
    4.695110003864572,
    4.982792076316353,
    4.982792076316353,
    4.982792076316353,
    4.982792076316353,
    4.982792076316353,
    4.982792076316353,
    4.982792076316353,
    4.982792076316353,
    4.982792076316353,
    4.982792076316353,
    4.982792076316353,
    4.982792076316353,
    4.982792076316353,
    4.982792076316353,
    4.982792076316353,
    4.982792076316353,
    4.982792076316353,
    4.982792076316353,
    4.982792076316353,
    4.982792076316353,
    4.982792076316353,
    4.982792076316353,
    4.982792076316353,
    4.982792076316353,
    4.982792076316353,
    4.982792076316353,
    4.982792076316353,
    4.982792076316353,
    4.982792076316353,
    4.982792076316353,
    4.982792076316353,
    4.982792076316353,
    4.982792076316353,
    4.982792076316353,
    4.982792076316353,
    4.982792076316353,
    4.982792076316353,
    4.982792076316353,
    4.982792076316353,
    4.982792076316353,
    4.982792076316353,
    4.982792076316353,
    4.982792076316353,
    4.982792076316353,
    4.982792076316353,
    4.982792076316353,
    4.982792076316353,
    4.982792076316353,
    4.982792076316353,
    4.982792076316353,
    4.982792076316353,
    4.982792076316353,
    4.982792076316353,
    4.982792076316353,
    4.982792076316353,
    4.982792076316353,
    4.982792076316353,
    4.982792076316353,
    4.982792076316353,
    4.982792076316353,
    4.982792076316353,
    4.982792076316353,
    4.982792076316353,
    4.982792076316353,
    4.982792076316353,
    4.982792076316353,
    4.982792076316353,
    4.982792076316353,
    4.982792076316353,
    4.982792076316353,
    4.982792076316353,
    4.982792076316353,
    4.982792076316353,
    4.982792076316353,
    4.982792076316353,
    4.982792076316353,
    4.982792076316353,
    4.982792076316353,
    4.982792076316353,
    4.982792076316353,
    4.982792076316353,
    4.982792076316353,
    4.982792076316353,
    4.982792076316353,
    4.982792076316353,
    4.982792076316353,
    4.982792076316353,
    4.982792076316353,
    4.982792076316353,
    4.982792076316353,
    4.982792076316353,
    4.982792076316353,
    4.982792076316353,
    4.982792076316353,
    4.982792076316353,
    4.982792076316353,
    4.982792076316353,
    4.982792076316353,
    4.982792076316353,
    4.982792076316353,
    4.982792076316353,
    4.982792076316353,
    4.982792076316353,
    4.982792076316353,
    4.982792076316353,
    4.982792076316353,
    4.982792076316353,
    4.982792076316353,
    4.982792076316353,
    4.982792076316353,
    4.982792076316353,
    4.982792076316353,
    4.982792076316353,
    4.982792076316353,
    4.982792076316353,
    4.982792076316353,
    4.982792076316353,
    4.982792076316353,
    4.982792076316353,
    4.982792076316353,
    4.982792076316353,
    4.982792076316353
  ],
  "weights": [
    -0.7084192942663928,
    -0.622749473273407,
    1.1118326905911504,
    -0.6243968452449665,
    0.8791701039544342,
    -0.04399010751355316,
    -0.34650154574401265,
    -0.5354458923488432,
    1.1815974073619882,
    -0.29492382956121593,
    0.4706105876100559,
    0.9059263114415657,
    0.7411969092457362,
    0.20707598713572173,
    -0.3822220148766291,
    0.5984538003862,
    0.6378719390897745,
    -0.37707717666410306,
    0.6591899065602207,
    0.6723193681435898,
    -0.3915662423496078,
    -0.3729465614540628,
    -0.21133847463337993,
    0.49524170914393034,
    0.5737010195010052,
    -0.3695824921675996,
    0.2729699728783609,
    -0.29958963255156756,
    -0.3039650241348498,
    0.2786733206514929,
    -0.17006868527677985,
    -0.30521272403001776,
    0.46670043220842444,
    -0.3327430829591929,
    -0.2877463837198204,
    -0.30564879757171415,
    0.3898084858235909,
    -0.16595301331066312,
    -0.3027531433276392,
    0.5135153616116095,
    0.5271467068636563,
    -0.10084597891618324,
    -0.2829037644480848,
    -0.3248855451015231,
    0.5251881826482273,
    -0.08046157784617482,
    -0.33588239989068985,
    -0.08107874226796885,
    -0.2777569206049045,
    -0.09766384315778352,
    -0.2480577098050583,
    -0.29266689403688123,
    0.5386712717251944,
    -0.2877962778103457,
    -0.26656489131013633,
    0.01661454954174882,
    -0.2330458327361114,
    0.567674376650893,
    0.4143373713521624,
    0.38217348866813017,
    0.5476795597734344,
    -0.22937744329839116,
    -0.27571074434965276,
    -0.24703796215049584,
    -0.3032025215876987,
    -0.23404996458009544,
    -0.26461786954339866,
    -0.24549256245703807,
    0.6432271748862487,
    0.4900578417052713,
    0.3829657048862651,
    0.10735301466333141,
    0.41805096408795167,
    -0.27817803526879614,
    -0.3225312696546426,
    -0.22961211824292796,
    -0.22909995682823014,
    -0.23156512382095826,
    -0.025584830650822944,
    -0.25515468552340576,
    -0.012662342889660344,
    0.15035045499796726,
    -0.2259900985803831,
    0.27883604759848796,
    -0.22554036712360576,
    -0.21936790944511686,
    0.3393913695190267,
    -0.21374897236689575,
    0.1639263223564672,
    0.37695529652643317,
    0.3893527434318854,
    0.33639821883200755,
    0.30829965820871646,
    -0.18506612449180385,
    -0.2153526204661884,
    -0.22543792710562013,
    0.18603467125829934,
    0.2013021058681845,
    0.23181687815897126,
    -0.22788888228780588,
    -0.19387031612724404,
    -0.2051597205798447,
    -0.23412193886175478,
    -0.05256772301847408,
    -0.20287440167526535,
    0.19699078164604134,
    -0.23961968776247086,
    -0.22864454785866808,
    -0.2360256454487142,
    0.3144148358897858,
    -0.1939655245361964,
    -0.19858046747393884,
    -0.2277303277895823,
    -0.20252294709354993,
    0.34876401858019357,
    -0.1985564374989263,
    0.5128730604122976,
    0.4241925464819071,
    -0.2211066278725375,
    0.29737755852846043,
    -0.13631539679102278,
    -0.15406728230100472,
    0.32000385241842355,
    -0.1534196110120395,
    -0.15369299917023074,
    0.2762589220187623,
    0.05232734501602596,
    0.4469567259764906,
    0.24357156442879152,
    0.24357156442879152,
    -0.15356414478268424,
    -0.1559519544842483,
    0.04582982166077881,
    -0.14126084420049936,
    -0.12852965622692697,
    -0.12852965622692697,
    -0.12979593230913833,
    -0.12074406406754633,
    -0.14767625355854647,
    -0.1431599347882349,
    -0.1644109242140282,
    0.005826589018173445,
    0.1815445599997543,
    -0.13915627960608823,
    0.05719959201913798,
    -0.13496583364811524,
    -0.1193195220619217,
    -0.11764298530279259,
    0.048002830020798956,
    0.3006581379064925,
    0.3541502236562787,
    0.06686542484772197,
    0.27763652534081046,
    0.20604309838764664,
    0.2746701242193058,
    0.006313304584439941,
    -0.16245063472936064,
    0.28068566901050557,
    0.19287284981116093,
    0.3285237790341845,
    -0.12440124993619123,
    -0.17863174355518663,
    -0.13711743257655717,
    -0.12048997546188325,
    -0.14241336118834738,
    -0.16402340734146612,
    -0.16402340734146612,
    -0.1642339648861558,
    0.26005248505037293,
    -0.15211485611099776,
    -0.12401145490954771,
    -0.12911357741854587,
    -0.12933906367398904,
    -0.12196442930843474,
    -0.14541027160131437,
    -0.12649036761084742,
    -0.1454690414226622,
    0.33596480590406075,
    0.07399071613832858,
    0.28003314946148383,
    0.35586544405876636,
    -0.19814892695176153,
    -0.1930523254006982,
    0.2590639044739868,
    0.2590639044739868,
    -0.16925670047236338,
    -0.1580533185372219,
    -0.13567746179352205,
    -0.14147720523593588,
    0.2584326802724595,
    -0.13619684308430383,
    -0.1761049409088805,
    -0.15220868882344793,
    0.3077929932701101,
    -0.13777410852596772,
    -0.1284998866617211,
    -0.13805793072967015,
    -0.14200889272837264,
    -0.14768113145512737,
    -0.13501245990179075,
    -0.16435618483677344,
    -0.15821068806872565,
    -0.1552433729019274,
    -0.1280201582696264,
    -0.1446663619670801,
    -0.14162779564651343,
    -0.16198364370373536,
    -0.168655004603591,
    -0.14835304160442733,
    0.517233572947929,
    0.04794607217266667,
    -0.12767502331249542,
    -0.13554252221334373,
    0.04049863425081244,
    -0.1296779658501824,
    -0.12280581458474689,
    -0.15196322187547084,
    0.08180517202087317,
    -0.12610236005533187,
    0.058828641860334395,
    0.3953043100172681,
    0.22332610007266537,
    -0.17992291920499762,
    -0.140783388077218,
    -0.1387285363222037,
    -0.14787635696368928,
    -0.13491159859861346,
    0.06618282942158205,
    0.28963895064434175,
    -0.15128634204524918,
    -0.17081270660899006,
    -0.12100023754633378,
    0.2633616235473352,
    0.30128592345177974,
    0.2584344366829625,
    -0.13689570053197764,
    0.13884404141397824,
    -0.1187044313514201,
    -0.15926823677605248,
    -0.1727422375602163,
    0.021635530413757945
  ],
  "bias": -0.2525687360935662,
  "meta": {
    "datasetSize": 200,
    "trainSize": 160,
    "heldOutSize": 40,
    "heldOutAccuracy": 0.925,
    "trainedAt": "2026-07-13T02:07:09.159Z"
  }
}
